digraph Tree {
node [shape=box, style="filled, rounded", color="black", fontname=helvetica] ;
edge [fontname=helvetica] ;
0 [label="Sex <= 0.5\ngini = 0.486\nsamples = 642\nvalue = [375, 267]\nclass = Unsurvived", fillcolor="#f8dbc6"] ;
1 [label="Pclass <= 2.5\ngini = 0.362\nsamples = 236\nvalue = [56, 180]\nclass = Survived", fillcolor="#77bbed"] ;
0 -> 1 [labeldistance=2.5, labelangle=45, headlabel="True"] ;
2 [label="Fare <= 22.0\ngini = 0.08\nsamples = 144\nvalue = [6, 138]\nclass = Survived", fillcolor="#42a1e6"] ;
1 -> 2 ;
3 [label="Age <= 56.0\ngini = 0.198\nsamples = 36\nvalue = [4, 32]\nclass = Survived", fillcolor="#52a9e8"] ;
2 -> 3 ;
4 [label="Fare <= 20.25\ngini = 0.157\nsamples = 35\nvalue = [3, 32]\nclass = Survived", fillcolor="#4ca6e7"] ;
3 -> 4 ;
5 [label="Fare <= 12.825\ngini = 0.117\nsamples = 32\nvalue = [2, 30]\nclass = Survived", fillcolor="#46a4e7"] ;
4 -> 5 ;
6 [label="gini = 0.0\nsamples = 9\nvalue = [0, 9]\nclass = Survived", fillcolor="#399de5"] ;
5 -> 6 ;
7 [label="Fare <= 13.25\ngini = 0.159\nsamples = 23\nvalue = [2, 21]\nclass = Survived", fillcolor="#4ca6e7"] ;
5 -> 7 ;
8 [label="Age <= 26.0\ngini = 0.245\nsamples = 14\nvalue = [2, 12]\nclass = Survived", fillcolor="#5aade9"] ;
7 -> 8 ;
9 [label="Parch <= 1.0\ngini = 0.444\nsamples = 3\nvalue = [1, 2]\nclass = Survived", fillcolor="#9ccef2"] ;
8 -> 9 ;
10 [label="gini = 0.5\nsamples = 2\nvalue = [1, 1]\nclass = Unsurvived", fillcolor="#ffffff"] ;
9 -> 10 ;
11 [label="gini = 0.0\nsamples = 1\nvalue = [0, 1]\nclass = Survived", fillcolor="#399de5"] ;
9 -> 11 ;
12 [label="Age <= 37.0\ngini = 0.165\nsamples = 11\nvalue = [1, 10]\nclass = Survived", fillcolor="#4da7e8"] ;
8 -> 12 ;
13 [label="gini = 0.0\nsamples = 8\nvalue = [0, 8]\nclass = Survived", fillcolor="#399de5"] ;
12 -> 13 ;
14 [label="Age <= 39.0\ngini = 0.444\nsamples = 3\nvalue = [1, 2]\nclass = Survived", fillcolor="#9ccef2"] ;
12 -> 14 ;
15 [label="gini = 0.0\nsamples = 1\nvalue = [1, 0]\nclass = Unsurvived", fillcolor="#e58139"] ;
14 -> 15 ;
16 [label="gini = 0.0\nsamples = 2\nvalue = [0, 2]\nclass = Survived", fillcolor="#399de5"] ;
14 -> 16 ;
17 [label="gini = 0.0\nsamples = 9\nvalue = [0, 9]\nclass = Survived", fillcolor="#399de5"] ;
7 -> 17 ;
18 [label="Age <= 28.5\ngini = 0.444\nsamples = 3\nvalue = [1, 2]\nclass = Survived", fillcolor="#9ccef2"] ;
4 -> 18 ;
19 [label="gini = 0.0\nsamples = 1\nvalue = [1, 0]\nclass = Unsurvived", fillcolor="#e58139"] ;
18 -> 19 ;
20 [label="gini = 0.0\nsamples = 2\nvalue = [0, 2]\nclass = Survived", fillcolor="#399de5"] ;
18 -> 20 ;
21 [label="gini = 0.0\nsamples = 1\nvalue = [1, 0]\nclass = Unsurvived", fillcolor="#e58139"] ;
3 -> 21 ;
22 [label="Age <= 49.5\ngini = 0.036\nsamples = 108\nvalue = [2, 106]\nclass = Survived", fillcolor="#3d9fe5"] ;
2 -> 22 ;
23 [label="Fare <= 143.592\ngini = 0.021\nsamples = 94\nvalue = [1, 93]\nclass = Survived", fillcolor="#3b9ee5"] ;
22 -> 23 ;
24 [label="gini = 0.0\nsamples = 79\nvalue = [0, 79]\nclass = Survived", fillcolor="#399de5"] ;
23 -> 24 ;
25 [label="Fare <= 152.506\ngini = 0.124\nsamples = 15\nvalue = [1, 14]\nclass = Survived", fillcolor="#47a4e7"] ;
23 -> 25 ;
26 [label="Age <= 23.5\ngini = 0.5\nsamples = 2\nvalue = [1, 1]\nclass = Unsurvived", fillcolor="#ffffff"] ;
25 -> 26 ;
27 [label="gini = 0.0\nsamples = 1\nvalue = [0, 1]\nclass = Survived", fillcolor="#399de5"] ;
26 -> 27 ;
28 [label="gini = 0.0\nsamples = 1\nvalue = [1, 0]\nclass = Unsurvived", fillcolor="#e58139"] ;
26 -> 28 ;
29 [label="gini = 0.0\nsamples = 13\nvalue = [0, 13]\nclass = Survived", fillcolor="#399de5"] ;
25 -> 29 ;
30 [label="Age <= 50.5\ngini = 0.133\nsamples = 14\nvalue = [1, 13]\nclass = Survived", fillcolor="#48a5e7"] ;
22 -> 30 ;
31 [label="Pclass <= 1.5\ngini = 0.5\nsamples = 2\nvalue = [1, 1]\nclass = Unsurvived", fillcolor="#ffffff"] ;
30 -> 31 ;
32 [label="gini = 0.0\nsamples = 1\nvalue = [1, 0]\nclass = Unsurvived", fillcolor="#e58139"] ;
31 -> 32 ;
33 [label="gini = 0.0\nsamples = 1\nvalue = [0, 1]\nclass = Survived", fillcolor="#399de5"] ;
31 -> 33 ;
34 [label="gini = 0.0\nsamples = 12\nvalue = [0, 12]\nclass = Survived", fillcolor="#399de5"] ;
30 -> 34 ;
35 [label="Fare <= 20.8\ngini = 0.496\nsamples = 92\nvalue = [50, 42]\nclass = Unsurvived", fillcolor="#fbebdf"] ;
1 -> 35 ;
36 [label="Age <= 16.5\ngini = 0.497\nsamples = 72\nvalue = [33, 39]\nclass = Survived", fillcolor="#e1f0fb"] ;
35 -> 36 ;
37 [label="Fare <= 15.494\ngini = 0.332\nsamples = 19\nvalue = [4, 15]\nclass = Survived", fillcolor="#6eb7ec"] ;
36 -> 37 ;
38 [label="Fare <= 13.935\ngini = 0.408\nsamples = 14\nvalue = [4, 10]\nclass = Survived", fillcolor="#88c4ef"] ;
37 -> 38 ;
39 [label="Fare <= 10.798\ngini = 0.298\nsamples = 11\nvalue = [2, 9]\nclass = Survived", fillcolor="#65b3eb"] ;
38 -> 39 ;
40 [label="Fare <= 7.802\ngini = 0.444\nsamples = 6\nvalue = [2, 4]\nclass = Survived", fillcolor="#9ccef2"] ;
39 -> 40 ;
41 [label="gini = 0.0\nsamples = 3\nvalue = [0, 3]\nclass = Survived", fillcolor="#399de5"] ;
40 -> 41 ;
42 [label="Age <= 14.5\ngini = 0.444\nsamples = 3\nvalue = [2, 1]\nclass = Unsurvived", fillcolor="#f2c09c"] ;
40 -> 42 ;
43 [label="gini = 0.0\nsamples = 2\nvalue = [2, 0]\nclass = Unsurvived", fillcolor="#e58139"] ;
42 -> 43 ;
44 [label="gini = 0.0\nsamples = 1\nvalue = [0, 1]\nclass = Survived", fillcolor="#399de5"] ;
42 -> 44 ;
45 [label="gini = 0.0\nsamples = 5\nvalue = [0, 5]\nclass = Survived", fillcolor="#399de5"] ;
39 -> 45 ;
46 [label="Age <= 14.75\ngini = 0.444\nsamples = 3\nvalue = [2, 1]\nclass = Unsurvived", fillcolor="#f2c09c"] ;
38 -> 46 ;
47 [label="gini = 0.0\nsamples = 2\nvalue = [2, 0]\nclass = Unsurvived", fillcolor="#e58139"] ;
46 -> 47 ;
48 [label="gini = 0.0\nsamples = 1\nvalue = [0, 1]\nclass = Survived", fillcolor="#399de5"] ;
46 -> 48 ;
49 [label="gini = 0.0\nsamples = 5\nvalue = [0, 5]\nclass = Survived", fillcolor="#399de5"] ;
37 -> 49 ;
50 [label="Age <= 36.5\ngini = 0.496\nsamples = 53\nvalue = [29, 24]\nclass = Unsurvived", fillcolor="#fbe9dd"] ;
36 -> 50 ;
51 [label="Fare <= 18.629\ngini = 0.5\nsamples = 46\nvalue = [23, 23]\nclass = Unsurvived", fillcolor="#ffffff"] ;
50 -> 51 ;
52 [label="Fare <= 17.6\ngini = 0.498\nsamples = 43\nvalue = [23, 20]\nclass = Unsurvived", fillcolor="#fcefe5"] ;
51 -> 52 ;
53 [label="Age <= 32.0\ngini = 0.5\nsamples = 40\nvalue = [20, 20]\nclass = Unsurvived", fillcolor="#ffffff"] ;
52 -> 53 ;
54 [label="Fare <= 7.888\ngini = 0.499\nsamples = 38\nvalue = [20, 18]\nclass = Unsurvived", fillcolor="#fcf2eb"] ;
53 -> 54 ;
55 [label="Age <= 28.25\ngini = 0.459\nsamples = 14\nvalue = [5, 9]\nclass = Survived", fillcolor="#a7d3f3"] ;
54 -> 55 ;
56 [label="Age <= 18.5\ngini = 0.375\nsamples = 12\nvalue = [3, 9]\nclass = Survived", fillcolor="#7bbeee"] ;
55 -> 56 ;
57 [label="Fare <= 7.123\ngini = 0.444\nsamples = 3\nvalue = [2, 1]\nclass = Unsurvived", fillcolor="#f2c09c"] ;
56 -> 57 ;
58 [label="gini = 0.0\nsamples = 1\nvalue = [1, 0]\nclass = Unsurvived", fillcolor="#e58139"] ;
57 -> 58 ;
59 [label="Fare <= 7.635\ngini = 0.5\nsamples = 2\nvalue = [1, 1]\nclass = Unsurvived", fillcolor="#ffffff"] ;
57 -> 59 ;
60 [label="gini = 0.0\nsamples = 1\nvalue = [0, 1]\nclass = Survived", fillcolor="#399de5"] ;
59 -> 60 ;
61 [label="gini = 0.0\nsamples = 1\nvalue = [1, 0]\nclass = Unsurvived", fillcolor="#e58139"] ;
59 -> 61 ;
62 [label="Age <= 21.5\ngini = 0.198\nsamples = 9\nvalue = [1, 8]\nclass = Survived", fillcolor="#52a9e8"] ;
56 -> 62 ;
63 [label="Age <= 20.0\ngini = 0.375\nsamples = 4\nvalue = [1, 3]\nclass = Survived", fillcolor="#7bbeee"] ;
62 -> 63 ;
64 [label="gini = 0.0\nsamples = 2\nvalue = [0, 2]\nclass = Survived", fillcolor="#399de5"] ;
63 -> 64 ;
65 [label="Fare <= 7.7\ngini = 0.5\nsamples = 2\nvalue = [1, 1]\nclass = Unsurvived", fillcolor="#ffffff"] ;
63 -> 65 ;
66 [label="gini = 0.0\nsamples = 1\nvalue = [0, 1]\nclass = Survived", fillcolor="#399de5"] ;
65 -> 66 ;
67 [label="gini = 0.0\nsamples = 1\nvalue = [1, 0]\nclass = Unsurvived", fillcolor="#e58139"] ;
65 -> 67 ;
68 [label="gini = 0.0\nsamples = 5\nvalue = [0, 5]\nclass = Survived", fillcolor="#399de5"] ;
62 -> 68 ;
69 [label="gini = 0.0\nsamples = 2\nvalue = [2, 0]\nclass = Unsurvived", fillcolor="#e58139"] ;
55 -> 69 ;
70 [label="Age <= 23.5\ngini = 0.469\nsamples = 24\nvalue = [15, 9]\nclass = Unsurvived", fillcolor="#f5cdb0"] ;
54 -> 70 ;
71 [label="Parch <= 0.5\ngini = 0.198\nsamples = 9\nvalue = [8, 1]\nclass = Unsurvived", fillcolor="#e89152"] ;
70 -> 71 ;
72 [label="gini = 0.0\nsamples = 7\nvalue = [7, 0]\nclass = Unsurvived", fillcolor="#e58139"] ;
71 -> 72 ;
73 [label="Fare <= 11.902\ngini = 0.5\nsamples = 2\nvalue = [1, 1]\nclass = Unsurvived", fillcolor="#ffffff"] ;
71 -> 73 ;
74 [label="gini = 0.0\nsamples = 1\nvalue = [0, 1]\nclass = Survived", fillcolor="#399de5"] ;
73 -> 74 ;
75 [label="gini = 0.0\nsamples = 1\nvalue = [1, 0]\nclass = Unsurvived", fillcolor="#e58139"] ;
73 -> 75 ;
76 [label="SibSp <= 0.5\ngini = 0.498\nsamples = 15\nvalue = [7, 8]\nclass = Survived", fillcolor="#e6f3fc"] ;
70 -> 76 ;
77 [label="Fare <= 9.992\ngini = 0.42\nsamples = 10\nvalue = [3, 7]\nclass = Survived", fillcolor="#8ec7f0"] ;
76 -> 77 ;
78 [label="Fare <= 7.91\ngini = 0.5\nsamples = 6\nvalue = [3, 3]\nclass = Unsurvived", fillcolor="#ffffff"] ;
77 -> 78 ;
79 [label="gini = 0.0\nsamples = 1\nvalue = [1, 0]\nclass = Unsurvived", fillcolor="#e58139"] ;
78 -> 79 ;
80 [label="Fare <= 8.294\ngini = 0.48\nsamples = 5\nvalue = [2, 3]\nclass = Survived", fillcolor="#bddef6"] ;
78 -> 80 ;
81 [label="gini = 0.0\nsamples = 2\nvalue = [0, 2]\nclass = Survived", fillcolor="#399de5"] ;
80 -> 81 ;
82 [label="Age <= 30.5\ngini = 0.444\nsamples = 3\nvalue = [2, 1]\nclass = Unsurvived", fillcolor="#f2c09c"] ;
80 -> 82 ;
83 [label="gini = 0.0\nsamples = 2\nvalue = [2, 0]\nclass = Unsurvived", fillcolor="#e58139"] ;
82 -> 83 ;
84 [label="gini = 0.0\nsamples = 1\nvalue = [0, 1]\nclass = Survived", fillcolor="#399de5"] ;
82 -> 84 ;
85 [label="gini = 0.0\nsamples = 4\nvalue = [0, 4]\nclass = Survived", fillcolor="#399de5"] ;
77 -> 85 ;
86 [label="Age <= 24.5\ngini = 0.32\nsamples = 5\nvalue = [4, 1]\nclass = Unsurvived", fillcolor="#eca06a"] ;
76 -> 86 ;
87 [label="gini = 0.0\nsamples = 1\nvalue = [0, 1]\nclass = Survived", fillcolor="#399de5"] ;
86 -> 87 ;
88 [label="gini = 0.0\nsamples = 4\nvalue = [4, 0]\nclass = Unsurvived", fillcolor="#e58139"] ;
86 -> 88 ;
89 [label="gini = 0.0\nsamples = 2\nvalue = [0, 2]\nclass = Survived", fillcolor="#399de5"] ;
53 -> 89 ;
90 [label="gini = 0.0\nsamples = 3\nvalue = [3, 0]\nclass = Unsurvived", fillcolor="#e58139"] ;
52 -> 90 ;
91 [label="gini = 0.0\nsamples = 3\nvalue = [0, 3]\nclass = Survived", fillcolor="#399de5"] ;
51 -> 91 ;
92 [label="Age <= 55.0\ngini = 0.245\nsamples = 7\nvalue = [6, 1]\nclass = Unsurvived", fillcolor="#e9965a"] ;
50 -> 92 ;
93 [label="gini = 0.0\nsamples = 6\nvalue = [6, 0]\nclass = Unsurvived", fillcolor="#e58139"] ;
92 -> 93 ;
94 [label="gini = 0.0\nsamples = 1\nvalue = [0, 1]\nclass = Survived", fillcolor="#399de5"] ;
92 -> 94 ;
95 [label="Age <= 5.5\ngini = 0.255\nsamples = 20\nvalue = [17, 3]\nclass = Unsurvived", fillcolor="#ea975c"] ;
35 -> 95 ;
96 [label="Age <= 3.5\ngini = 0.5\nsamples = 4\nvalue = [2, 2]\nclass = Unsurvived", fillcolor="#ffffff"] ;
95 -> 96 ;
97 [label="gini = 0.0\nsamples = 2\nvalue = [2, 0]\nclass = Unsurvived", fillcolor="#e58139"] ;
96 -> 97 ;
98 [label="gini = 0.0\nsamples = 2\nvalue = [0, 2]\nclass = Survived", fillcolor="#399de5"] ;
96 -> 98 ;
99 [label="Parch <= 4.5\ngini = 0.117\nsamples = 16\nvalue = [15, 1]\nclass = Unsurvived", fillcolor="#e78946"] ;
95 -> 99 ;
100 [label="gini = 0.0\nsamples = 11\nvalue = [11, 0]\nclass = Unsurvived", fillcolor="#e58139"] ;
99 -> 100 ;
101 [label="Age <= 38.5\ngini = 0.32\nsamples = 5\nvalue = [4, 1]\nclass = Unsurvived", fillcolor="#eca06a"] ;
99 -> 101 ;
102 [label="gini = 0.0\nsamples = 1\nvalue = [0, 1]\nclass = Survived", fillcolor="#399de5"] ;
101 -> 102 ;
103 [label="gini = 0.0\nsamples = 4\nvalue = [4, 0]\nclass = Unsurvived", fillcolor="#e58139"] ;
101 -> 103 ;
104 [label="Pclass <= 1.5\ngini = 0.337\nsamples = 406\nvalue = [319, 87]\nclass = Unsurvived", fillcolor="#eca36f"] ;
0 -> 104 [labeldistance=2.5, labelangle=-45, headlabel="False"] ;
105 [label="Age <= 36.5\ngini = 0.49\nsamples = 93\nvalue = [53, 40]\nclass = Unsurvived", fillcolor="#f9e0ce"] ;
104 -> 105 ;
106 [label="Fare <= 37.812\ngini = 0.478\nsamples = 38\nvalue = [15, 23]\nclass = Survived", fillcolor="#baddf6"] ;
105 -> 106 ;
107 [label="Fare <= 15.644\ngini = 0.278\nsamples = 12\nvalue = [2, 10]\nclass = Survived", fillcolor="#61b1ea"] ;
106 -> 107 ;
108 [label="gini = 0.0\nsamples = 1\nvalue = [1, 0]\nclass = Unsurvived", fillcolor="#e58139"] ;
107 -> 108 ;
109 [label="Age <= 30.5\ngini = 0.165\nsamples = 11\nvalue = [1, 10]\nclass = Survived", fillcolor="#4da7e8"] ;
107 -> 109 ;
110 [label="Age <= 28.5\ngini = 0.32\nsamples = 5\nvalue = [1, 4]\nclass = Survived", fillcolor="#6ab6ec"] ;
109 -> 110 ;
111 [label="gini = 0.0\nsamples = 4\nvalue = [0, 4]\nclass = Survived", fillcolor="#399de5"] ;
110 -> 111 ;
112 [label="gini = 0.0\nsamples = 1\nvalue = [1, 0]\nclass = Unsurvived", fillcolor="#e58139"] ;
110 -> 112 ;
113 [label="gini = 0.0\nsamples = 6\nvalue = [0, 6]\nclass = Survived", fillcolor="#399de5"] ;
109 -> 113 ;
114 [label="Fare <= 52.55\ngini = 0.5\nsamples = 26\nvalue = [13, 13]\nclass = Unsurvived", fillcolor="#ffffff"] ;
106 -> 114 ;
115 [label="gini = 0.0\nsamples = 4\nvalue = [4, 0]\nclass = Unsurvived", fillcolor="#e58139"] ;
114 -> 115 ;
116 [label="Age <= 17.5\ngini = 0.483\nsamples = 22\nvalue = [9, 13]\nclass = Survived", fillcolor="#c2e1f7"] ;
114 -> 116 ;
117 [label="gini = 0.0\nsamples = 4\nvalue = [0, 4]\nclass = Survived", fillcolor="#399de5"] ;
116 -> 117 ;
118 [label="Age <= 22.0\ngini = 0.5\nsamples = 18\nvalue = [9, 9]\nclass = Unsurvived", fillcolor="#ffffff"] ;
116 -> 118 ;
119 [label="gini = 0.0\nsamples = 4\nvalue = [4, 0]\nclass = Unsurvived", fillcolor="#e58139"] ;
118 -> 119 ;
120 [label="Fare <= 64.979\ngini = 0.459\nsamples = 14\nvalue = [5, 9]\nclass = Survived", fillcolor="#a7d3f3"] ;
118 -> 120 ;
121 [label="gini = 0.0\nsamples = 4\nvalue = [0, 4]\nclass = Survived", fillcolor="#399de5"] ;
120 -> 121 ;
122 [label="Fare <= 379.925\ngini = 0.5\nsamples = 10\nvalue = [5, 5]\nclass = Unsurvived", fillcolor="#ffffff"] ;
120 -> 122 ;
123 [label="Fare <= 165.75\ngini = 0.469\nsamples = 8\nvalue = [5, 3]\nclass = Unsurvived", fillcolor="#f5cdb0"] ;
122 -> 123 ;
124 [label="Fare <= 86.625\ngini = 0.5\nsamples = 6\nvalue = [3, 3]\nclass = Unsurvived", fillcolor="#ffffff"] ;
123 -> 124 ;
125 [label="SibSp <= 0.5\ngini = 0.375\nsamples = 4\nvalue = [3, 1]\nclass = Unsurvived", fillcolor="#eeab7b"] ;
124 -> 125 ;
126 [label="gini = 0.0\nsamples = 1\nvalue = [0, 1]\nclass = Survived", fillcolor="#399de5"] ;
125 -> 126 ;
127 [label="gini = 0.0\nsamples = 3\nvalue = [3, 0]\nclass = Unsurvived", fillcolor="#e58139"] ;
125 -> 127 ;
128 [label="gini = 0.0\nsamples = 2\nvalue = [0, 2]\nclass = Survived", fillcolor="#399de5"] ;
124 -> 128 ;
129 [label="gini = 0.0\nsamples = 2\nvalue = [2, 0]\nclass = Unsurvived", fillcolor="#e58139"] ;
123 -> 129 ;
130 [label="gini = 0.0\nsamples = 2\nvalue = [0, 2]\nclass = Survived", fillcolor="#399de5"] ;
122 -> 130 ;
131 [label="SibSp <= 0.5\ngini = 0.427\nsamples = 55\nvalue = [38, 17]\nclass = Unsurvived", fillcolor="#f1b992"] ;
105 -> 131 ;
132 [label="Fare <= 37.0\ngini = 0.353\nsamples = 35\nvalue = [27, 8]\nclass = Unsurvived", fillcolor="#eda674"] ;
131 -> 132 ;
133 [label="Fare <= 26.144\ngini = 0.426\nsamples = 26\nvalue = [18, 8]\nclass = Unsurvived", fillcolor="#f1b991"] ;
132 -> 133 ;
134 [label="gini = 0.0\nsamples = 5\nvalue = [5, 0]\nclass = Unsurvived", fillcolor="#e58139"] ;
133 -> 134 ;
135 [label="Fare <= 26.419\ngini = 0.472\nsamples = 21\nvalue = [13, 8]\nclass = Unsurvived", fillcolor="#f5cfb3"] ;
133 -> 135 ;
136 [label="gini = 0.0\nsamples = 1\nvalue = [0, 1]\nclass = Survived", fillcolor="#399de5"] ;
135 -> 136 ;
137 [label="Age <= 75.5\ngini = 0.455\nsamples = 20\nvalue = [13, 7]\nclass = Unsurvived", fillcolor="#f3c5a4"] ;
135 -> 137 ;
138 [label="Age <= 58.0\ngini = 0.432\nsamples = 19\nvalue = [13, 6]\nclass = Unsurvived", fillcolor="#f1bb94"] ;
137 -> 138 ;
139 [label="Age <= 47.5\ngini = 0.48\nsamples = 15\nvalue = [9, 6]\nclass = Unsurvived", fillcolor="#f6d5bd"] ;
138 -> 139 ;
140 [label="Age <= 45.25\ngini = 0.375\nsamples = 8\nvalue = [6, 2]\nclass = Unsurvived", fillcolor="#eeab7b"] ;
139 -> 140 ;
141 [label="Age <= 38.5\ngini = 0.444\nsamples = 6\nvalue = [4, 2]\nclass = Unsurvived", fillcolor="#f2c09c"] ;
140 -> 141 ;
142 [label="gini = 0.0\nsamples = 1\nvalue = [1, 0]\nclass = Unsurvived", fillcolor="#e58139"] ;
141 -> 142 ;
143 [label="Fare <= 33.25\ngini = 0.48\nsamples = 5\nvalue = [3, 2]\nclass = Unsurvived", fillcolor="#f6d5bd"] ;
141 -> 143 ;
144 [label="Fare <= 29.36\ngini = 0.5\nsamples = 4\nvalue = [2, 2]\nclass = Unsurvived", fillcolor="#ffffff"] ;
143 -> 144 ;
145 [label="Fare <= 27.135\ngini = 0.444\nsamples = 3\nvalue = [2, 1]\nclass = Unsurvived", fillcolor="#f2c09c"] ;
144 -> 145 ;
146 [label="gini = 0.5\nsamples = 2\nvalue = [1, 1]\nclass = Unsurvived", fillcolor="#ffffff"] ;
145 -> 146 ;
147 [label="gini = 0.0\nsamples = 1\nvalue = [1, 0]\nclass = Unsurvived", fillcolor="#e58139"] ;
145 -> 147 ;
148 [label="gini = 0.0\nsamples = 1\nvalue = [0, 1]\nclass = Survived", fillcolor="#399de5"] ;
144 -> 148 ;
149 [label="gini = 0.0\nsamples = 1\nvalue = [1, 0]\nclass = Unsurvived", fillcolor="#e58139"] ;
143 -> 149 ;
150 [label="gini = 0.0\nsamples = 2\nvalue = [2, 0]\nclass = Unsurvived", fillcolor="#e58139"] ;
140 -> 150 ;
151 [label="Age <= 53.5\ngini = 0.49\nsamples = 7\nvalue = [3, 4]\nclass = Survived", fillcolor="#cee6f8"] ;
139 -> 151 ;
152 [label="gini = 0.0\nsamples = 3\nvalue = [0, 3]\nclass = Survived", fillcolor="#399de5"] ;
151 -> 152 ;
153 [label="Fare <= 33.098\ngini = 0.375\nsamples = 4\nvalue = [3, 1]\nclass = Unsurvived", fillcolor="#eeab7b"] ;
151 -> 153 ;
154 [label="gini = 0.0\nsamples = 3\nvalue = [3, 0]\nclass = Unsurvived", fillcolor="#e58139"] ;
153 -> 154 ;
155 [label="gini = 0.0\nsamples = 1\nvalue = [0, 1]\nclass = Survived", fillcolor="#399de5"] ;
153 -> 155 ;
156 [label="gini = 0.0\nsamples = 4\nvalue = [4, 0]\nclass = Unsurvived", fillcolor="#e58139"] ;
138 -> 156 ;
157 [label="gini = 0.0\nsamples = 1\nvalue = [0, 1]\nclass = Survived", fillcolor="#399de5"] ;
137 -> 157 ;
158 [label="gini = 0.0\nsamples = 9\nvalue = [9, 0]\nclass = Unsurvived", fillcolor="#e58139"] ;
132 -> 158 ;
159 [label="Fare <= 52.827\ngini = 0.495\nsamples = 20\nvalue = [11, 9]\nclass = Unsurvived", fillcolor="#fae8db"] ;
131 -> 159 ;
160 [label="Fare <= 52.277\ngini = 0.375\nsamples = 4\nvalue = [1, 3]\nclass = Survived", fillcolor="#7bbeee"] ;
159 -> 160 ;
161 [label="Age <= 45.0\ngini = 0.5\nsamples = 2\nvalue = [1, 1]\nclass = Unsurvived", fillcolor="#ffffff"] ;
160 -> 161 ;
162 [label="gini = 0.0\nsamples = 1\nvalue = [1, 0]\nclass = Unsurvived", fillcolor="#e58139"] ;
161 -> 162 ;
163 [label="gini = 0.0\nsamples = 1\nvalue = [0, 1]\nclass = Survived", fillcolor="#399de5"] ;
161 -> 163 ;
164 [label="gini = 0.0\nsamples = 2\nvalue = [0, 2]\nclass = Survived", fillcolor="#399de5"] ;
160 -> 164 ;
165 [label="Fare <= 56.415\ngini = 0.469\nsamples = 16\nvalue = [10, 6]\nclass = Unsurvived", fillcolor="#f5cdb0"] ;
159 -> 165 ;
166 [label="gini = 0.0\nsamples = 2\nvalue = [2, 0]\nclass = Unsurvived", fillcolor="#e58139"] ;
165 -> 166 ;
167 [label="Age <= 62.0\ngini = 0.49\nsamples = 14\nvalue = [8, 6]\nclass = Unsurvived", fillcolor="#f8e0ce"] ;
165 -> 167 ;
168 [label="Fare <= 79.425\ngini = 0.5\nsamples = 12\nvalue = [6, 6]\nclass = Unsurvived", fillcolor="#ffffff"] ;
167 -> 168 ;
169 [label="Age <= 47.0\ngini = 0.375\nsamples = 4\nvalue = [1, 3]\nclass = Survived", fillcolor="#7bbeee"] ;
168 -> 169 ;
170 [label="gini = 0.0\nsamples = 1\nvalue = [1, 0]\nclass = Unsurvived", fillcolor="#e58139"] ;
169 -> 170 ;
171 [label="gini = 0.0\nsamples = 3\nvalue = [0, 3]\nclass = Survived", fillcolor="#399de5"] ;
169 -> 171 ;
172 [label="Age <= 41.0\ngini = 0.469\nsamples = 8\nvalue = [5, 3]\nclass = Unsurvived", fillcolor="#f5cdb0"] ;
168 -> 172 ;
173 [label="gini = 0.0\nsamples = 1\nvalue = [0, 1]\nclass = Survived", fillcolor="#399de5"] ;
172 -> 173 ;
174 [label="Fare <= 122.267\ngini = 0.408\nsamples = 7\nvalue = [5, 2]\nclass = Unsurvived", fillcolor="#efb388"] ;
172 -> 174 ;
175 [label="Fare <= 89.552\ngini = 0.278\nsamples = 6\nvalue = [5, 1]\nclass = Unsurvived", fillcolor="#ea9a61"] ;
174 -> 175 ;
176 [label="Fare <= 86.29\ngini = 0.444\nsamples = 3\nvalue = [2, 1]\nclass = Unsurvived", fillcolor="#f2c09c"] ;
175 -> 176 ;
177 [label="gini = 0.0\nsamples = 2\nvalue = [2, 0]\nclass = Unsurvived", fillcolor="#e58139"] ;
176 -> 177 ;
178 [label="gini = 0.0\nsamples = 1\nvalue = [0, 1]\nclass = Survived", fillcolor="#399de5"] ;
176 -> 178 ;
179 [label="gini = 0.0\nsamples = 3\nvalue = [3, 0]\nclass = Unsurvived", fillcolor="#e58139"] ;
175 -> 179 ;
180 [label="gini = 0.0\nsamples = 1\nvalue = [0, 1]\nclass = Survived", fillcolor="#399de5"] ;
174 -> 180 ;
181 [label="gini = 0.0\nsamples = 2\nvalue = [2, 0]\nclass = Unsurvived", fillcolor="#e58139"] ;
167 -> 181 ;
182 [label="Age <= 6.5\ngini = 0.255\nsamples = 313\nvalue = [266, 47]\nclass = Unsurvived", fillcolor="#ea975c"] ;
104 -> 182 ;
183 [label="SibSp <= 2.5\ngini = 0.472\nsamples = 21\nvalue = [8, 13]\nclass = Survived", fillcolor="#b3d9f5"] ;
182 -> 183 ;
184 [label="gini = 0.0\nsamples = 12\nvalue = [0, 12]\nclass = Survived", fillcolor="#399de5"] ;
183 -> 184 ;
185 [label="Fare <= 31.331\ngini = 0.198\nsamples = 9\nvalue = [8, 1]\nclass = Unsurvived", fillcolor="#e89152"] ;
183 -> 185 ;
186 [label="gini = 0.0\nsamples = 5\nvalue = [5, 0]\nclass = Unsurvived", fillcolor="#e58139"] ;
185 -> 186 ;
187 [label="Fare <= 35.538\ngini = 0.375\nsamples = 4\nvalue = [3, 1]\nclass = Unsurvived", fillcolor="#eeab7b"] ;
185 -> 187 ;
188 [label="gini = 0.0\nsamples = 1\nvalue = [0, 1]\nclass = Survived", fillcolor="#399de5"] ;
187 -> 188 ;
189 [label="gini = 0.0\nsamples = 3\nvalue = [3, 0]\nclass = Unsurvived", fillcolor="#e58139"] ;
187 -> 189 ;
190 [label="Fare <= 11.371\ngini = 0.206\nsamples = 292\nvalue = [258, 34]\nclass = Unsurvived", fillcolor="#e89253"] ;
182 -> 190 ;
191 [label="Age <= 13.5\ngini = 0.25\nsamples = 184\nvalue = [157, 27]\nclass = Unsurvived", fillcolor="#e9975b"] ;
190 -> 191 ;
192 [label="gini = 0.0\nsamples = 1\nvalue = [0, 1]\nclass = Survived", fillcolor="#399de5"] ;
191 -> 192 ;
193 [label="Age <= 32.5\ngini = 0.244\nsamples = 183\nvalue = [157, 26]\nclass = Unsurvived", fillcolor="#e9965a"] ;
191 -> 193 ;
194 [label="Age <= 26.5\ngini = 0.279\nsamples = 131\nvalue = [109, 22]\nclass = Unsurvived", fillcolor="#ea9a61"] ;
193 -> 194 ;
195 [label="Fare <= 7.24\ngini = 0.215\nsamples = 90\nvalue = [79, 11]\nclass = Unsurvived", fillcolor="#e99355"] ;
194 -> 195 ;
196 [label="Age <= 19.5\ngini = 0.375\nsamples = 16\nvalue = [12, 4]\nclass = Unsurvived", fillcolor="#eeab7b"] ;
195 -> 196 ;
197 [label="gini = 0.0\nsamples = 5\nvalue = [5, 0]\nclass = Unsurvived", fillcolor="#e58139"] ;
196 -> 197 ;
198 [label="Fare <= 3.525\ngini = 0.463\nsamples = 11\nvalue = [7, 4]\nclass = Unsurvived", fillcolor="#f4c9aa"] ;
196 -> 198 ;
199 [label="gini = 0.0\nsamples = 1\nvalue = [0, 1]\nclass = Survived", fillcolor="#399de5"] ;
198 -> 199 ;
200 [label="Fare <= 7.133\ngini = 0.42\nsamples = 10\nvalue = [7, 3]\nclass = Unsurvived", fillcolor="#f0b78e"] ;
198 -> 200 ;
201 [label="gini = 0.0\nsamples = 4\nvalue = [4, 0]\nclass = Unsurvived", fillcolor="#e58139"] ;
200 -> 201 ;
202 [label="Age <= 21.0\ngini = 0.5\nsamples = 6\nvalue = [3, 3]\nclass = Unsurvived", fillcolor="#ffffff"] ;
200 -> 202 ;
203 [label="gini = 0.0\nsamples = 1\nvalue = [0, 1]\nclass = Survived", fillcolor="#399de5"] ;
202 -> 203 ;
204 [label="Fare <= 7.227\ngini = 0.48\nsamples = 5\nvalue = [3, 2]\nclass = Unsurvived", fillcolor="#f6d5bd"] ;
202 -> 204 ;
205 [label="Age <= 24.5\ngini = 0.444\nsamples = 3\nvalue = [1, 2]\nclass = Survived", fillcolor="#9ccef2"] ;
204 -> 205 ;
206 [label="gini = 0.0\nsamples = 2\nvalue = [0, 2]\nclass = Survived", fillcolor="#399de5"] ;
205 -> 206 ;
207 [label="gini = 0.0\nsamples = 1\nvalue = [1, 0]\nclass = Unsurvived", fillcolor="#e58139"] ;
205 -> 207 ;
208 [label="gini = 0.0\nsamples = 2\nvalue = [2, 0]\nclass = Unsurvived", fillcolor="#e58139"] ;
204 -> 208 ;
209 [label="SibSp <= 0.5\ngini = 0.171\nsamples = 74\nvalue = [67, 7]\nclass = Unsurvived", fillcolor="#e88e4e"] ;
195 -> 209 ;
210 [label="Age <= 19.5\ngini = 0.136\nsamples = 68\nvalue = [63, 5]\nclass = Unsurvived", fillcolor="#e78b49"] ;
209 -> 210 ;
211 [label="Fare <= 7.973\ngini = 0.278\nsamples = 24\nvalue = [20, 4]\nclass = Unsurvived", fillcolor="#ea9a61"] ;
210 -> 211 ;
212 [label="gini = 0.0\nsamples = 8\nvalue = [8, 0]\nclass = Unsurvived", fillcolor="#e58139"] ;
211 -> 212 ;
213 [label="Fare <= 8.104\ngini = 0.375\nsamples = 16\nvalue = [12, 4]\nclass = Unsurvived", fillcolor="#eeab7b"] ;
211 -> 213 ;
214 [label="Age <= 17.0\ngini = 0.48\nsamples = 5\nvalue = [2, 3]\nclass = Survived", fillcolor="#bddef6"] ;
213 -> 214 ;
215 [label="gini = 0.5\nsamples = 2\nvalue = [1, 1]\nclass = Unsurvived", fillcolor="#ffffff"] ;
214 -> 215 ;
216 [label="Age <= 18.5\ngini = 0.444\nsamples = 3\nvalue = [1, 2]\nclass = Survived", fillcolor="#9ccef2"] ;
214 -> 216 ;
217 [label="gini = 0.0\nsamples = 1\nvalue = [0, 1]\nclass = Survived", fillcolor="#399de5"] ;
216 -> 217 ;
218 [label="gini = 0.5\nsamples = 2\nvalue = [1, 1]\nclass = Unsurvived", fillcolor="#ffffff"] ;
216 -> 218 ;
219 [label="Pclass <= 2.5\ngini = 0.165\nsamples = 11\nvalue = [10, 1]\nclass = Unsurvived", fillcolor="#e88e4d"] ;
213 -> 219 ;
220 [label="Age <= 17.5\ngini = 0.444\nsamples = 3\nvalue = [2, 1]\nclass = Unsurvived", fillcolor="#f2c09c"] ;
219 -> 220 ;
221 [label="gini = 0.0\nsamples = 1\nvalue = [1, 0]\nclass = Unsurvived", fillcolor="#e58139"] ;
220 -> 221 ;
222 [label="gini = 0.5\nsamples = 2\nvalue = [1, 1]\nclass = Unsurvived", fillcolor="#ffffff"] ;
220 -> 222 ;
223 [label="gini = 0.0\nsamples = 8\nvalue = [8, 0]\nclass = Unsurvived", fillcolor="#e58139"] ;
219 -> 223 ;
224 [label="Fare <= 7.825\ngini = 0.044\nsamples = 44\nvalue = [43, 1]\nclass = Unsurvived", fillcolor="#e6843e"] ;
210 -> 224 ;
225 [label="Fare <= 7.785\ngini = 0.142\nsamples = 13\nvalue = [12, 1]\nclass = Unsurvived", fillcolor="#e78c49"] ;
224 -> 225 ;
226 [label="gini = 0.0\nsamples = 10\nvalue = [10, 0]\nclass = Unsurvived", fillcolor="#e58139"] ;
225 -> 226 ;
227 [label="Age <= 21.5\ngini = 0.444\nsamples = 3\nvalue = [2, 1]\nclass = Unsurvived", fillcolor="#f2c09c"] ;
225 -> 227 ;
228 [label="gini = 0.0\nsamples = 1\nvalue = [0, 1]\nclass = Survived", fillcolor="#399de5"] ;
227 -> 228 ;
229 [label="gini = 0.0\nsamples = 2\nvalue = [2, 0]\nclass = Unsurvived", fillcolor="#e58139"] ;
227 -> 229 ;
230 [label="gini = 0.0\nsamples = 31\nvalue = [31, 0]\nclass = Unsurvived", fillcolor="#e58139"] ;
224 -> 230 ;
231 [label="Age <= 25.5\ngini = 0.444\nsamples = 6\nvalue = [4, 2]\nclass = Unsurvived", fillcolor="#f2c09c"] ;
209 -> 231 ;
232 [label="Parch <= 0.5\ngini = 0.5\nsamples = 4\nvalue = [2, 2]\nclass = Unsurvived", fillcolor="#ffffff"] ;
231 -> 232 ;
233 [label="Fare <= 7.85\ngini = 0.444\nsamples = 3\nvalue = [1, 2]\nclass = Survived", fillcolor="#9ccef2"] ;
232 -> 233 ;
234 [label="gini = 0.5\nsamples = 2\nvalue = [1, 1]\nclass = Unsurvived", fillcolor="#ffffff"] ;
233 -> 234 ;
235 [label="gini = 0.0\nsamples = 1\nvalue = [0, 1]\nclass = Survived", fillcolor="#399de5"] ;
233 -> 235 ;
236 [label="gini = 0.0\nsamples = 1\nvalue = [1, 0]\nclass = Unsurvived", fillcolor="#e58139"] ;
232 -> 236 ;
237 [label="gini = 0.0\nsamples = 2\nvalue = [2, 0]\nclass = Unsurvived", fillcolor="#e58139"] ;
231 -> 237 ;
238 [label="Age <= 27.5\ngini = 0.393\nsamples = 41\nvalue = [30, 11]\nclass = Unsurvived", fillcolor="#efaf82"] ;
194 -> 238 ;
239 [label="Fare <= 7.846\ngini = 0.375\nsamples = 4\nvalue = [1, 3]\nclass = Survived", fillcolor="#7bbeee"] ;
238 -> 239 ;
240 [label="gini = 0.0\nsamples = 2\nvalue = [0, 2]\nclass = Survived", fillcolor="#399de5"] ;
239 -> 240 ;
241 [label="Fare <= 8.279\ngini = 0.5\nsamples = 2\nvalue = [1, 1]\nclass = Unsurvived", fillcolor="#ffffff"] ;
239 -> 241 ;
242 [label="gini = 0.0\nsamples = 1\nvalue = [1, 0]\nclass = Unsurvived", fillcolor="#e58139"] ;
241 -> 242 ;
243 [label="gini = 0.0\nsamples = 1\nvalue = [0, 1]\nclass = Survived", fillcolor="#399de5"] ;
241 -> 243 ;
244 [label="Age <= 28.75\ngini = 0.339\nsamples = 37\nvalue = [29, 8]\nclass = Unsurvived", fillcolor="#eca470"] ;
238 -> 244 ;
245 [label="gini = 0.0\nsamples = 9\nvalue = [9, 0]\nclass = Unsurvived", fillcolor="#e58139"] ;
244 -> 245 ;
246 [label="Pclass <= 2.5\ngini = 0.408\nsamples = 28\nvalue = [20, 8]\nclass = Unsurvived", fillcolor="#efb388"] ;
244 -> 246 ;
247 [label="gini = 0.0\nsamples = 4\nvalue = [4, 0]\nclass = Unsurvived", fillcolor="#e58139"] ;
246 -> 247 ;
248 [label="Fare <= 9.492\ngini = 0.444\nsamples = 24\nvalue = [16, 8]\nclass = Unsurvived", fillcolor="#f2c09c"] ;
246 -> 248 ;
249 [label="Age <= 30.75\ngini = 0.397\nsamples = 22\nvalue = [16, 6]\nclass = Unsurvived", fillcolor="#efb083"] ;
248 -> 249 ;
250 [label="Age <= 29.5\ngini = 0.278\nsamples = 12\nvalue = [10, 2]\nclass = Unsurvived", fillcolor="#ea9a61"] ;
249 -> 250 ;
251 [label="Fare <= 7.973\ngini = 0.408\nsamples = 7\nvalue = [5, 2]\nclass = Unsurvived", fillcolor="#efb388"] ;
250 -> 251 ;
252 [label="Fare <= 7.885\ngini = 0.48\nsamples = 5\nvalue = [3, 2]\nclass = Unsurvived", fillcolor="#f6d5bd"] ;
251 -> 252 ;
253 [label="Fare <= 7.763\ngini = 0.375\nsamples = 4\nvalue = [3, 1]\nclass = Unsurvived", fillcolor="#eeab7b"] ;
252 -> 253 ;
254 [label="SibSp <= 0.5\ngini = 0.5\nsamples = 2\nvalue = [1, 1]\nclass = Unsurvived", fillcolor="#ffffff"] ;
253 -> 254 ;
255 [label="gini = 0.0\nsamples = 1\nvalue = [0, 1]\nclass = Survived", fillcolor="#399de5"] ;
254 -> 255 ;
256 [label="gini = 0.0\nsamples = 1\nvalue = [1, 0]\nclass = Unsurvived", fillcolor="#e58139"] ;
254 -> 256 ;
257 [label="gini = 0.0\nsamples = 2\nvalue = [2, 0]\nclass = Unsurvived", fillcolor="#e58139"] ;
253 -> 257 ;
258 [label="gini = 0.0\nsamples = 1\nvalue = [0, 1]\nclass = Survived", fillcolor="#399de5"] ;
252 -> 258 ;
259 [label="gini = 0.0\nsamples = 2\nvalue = [2, 0]\nclass = Unsurvived", fillcolor="#e58139"] ;
251 -> 259 ;
260 [label="gini = 0.0\nsamples = 5\nvalue = [5, 0]\nclass = Unsurvived", fillcolor="#e58139"] ;
250 -> 260 ;
261 [label="Fare <= 7.815\ngini = 0.48\nsamples = 10\nvalue = [6, 4]\nclass = Unsurvived", fillcolor="#f6d5bd"] ;
249 -> 261 ;
262 [label="gini = 0.0\nsamples = 3\nvalue = [3, 0]\nclass = Unsurvived", fillcolor="#e58139"] ;
261 -> 262 ;
263 [label="Age <= 31.5\ngini = 0.49\nsamples = 7\nvalue = [3, 4]\nclass = Survived", fillcolor="#cee6f8"] ;
261 -> 263 ;
264 [label="gini = 0.0\nsamples = 1\nvalue = [0, 1]\nclass = Survived", fillcolor="#399de5"] ;
263 -> 264 ;
265 [label="Fare <= 7.875\ngini = 0.5\nsamples = 6\nvalue = [3, 3]\nclass = Unsurvived", fillcolor="#ffffff"] ;
263 -> 265 ;
266 [label="gini = 0.0\nsamples = 1\nvalue = [0, 1]\nclass = Survived", fillcolor="#399de5"] ;
265 -> 266 ;
267 [label="Fare <= 7.988\ngini = 0.48\nsamples = 5\nvalue = [3, 2]\nclass = Unsurvived", fillcolor="#f6d5bd"] ;
265 -> 267 ;
268 [label="Fare <= 7.91\ngini = 0.375\nsamples = 4\nvalue = [3, 1]\nclass = Unsurvived", fillcolor="#eeab7b"] ;
267 -> 268 ;
269 [label="gini = 0.0\nsamples = 1\nvalue = [1, 0]\nclass = Unsurvived", fillcolor="#e58139"] ;
268 -> 269 ;
270 [label="gini = 0.444\nsamples = 3\nvalue = [2, 1]\nclass = Unsurvived", fillcolor="#f2c09c"] ;
268 -> 270 ;
271 [label="gini = 0.0\nsamples = 1\nvalue = [0, 1]\nclass = Survived", fillcolor="#399de5"] ;
267 -> 271 ;
272 [label="gini = 0.0\nsamples = 2\nvalue = [0, 2]\nclass = Survived", fillcolor="#399de5"] ;
248 -> 272 ;
273 [label="Fare <= 7.91\ngini = 0.142\nsamples = 52\nvalue = [48, 4]\nclass = Unsurvived", fillcolor="#e78c49"] ;
193 -> 273 ;
274 [label="gini = 0.0\nsamples = 27\nvalue = [27, 0]\nclass = Unsurvived", fillcolor="#e58139"] ;
273 -> 274 ;
275 [label="Fare <= 7.988\ngini = 0.269\nsamples = 25\nvalue = [21, 4]\nclass = Unsurvived", fillcolor="#ea995f"] ;
273 -> 275 ;
276 [label="Age <= 38.0\ngini = 0.5\nsamples = 4\nvalue = [2, 2]\nclass = Unsurvived", fillcolor="#ffffff"] ;
275 -> 276 ;
277 [label="gini = 0.0\nsamples = 1\nvalue = [1, 0]\nclass = Unsurvived", fillcolor="#e58139"] ;
276 -> 277 ;
278 [label="Age <= 41.5\ngini = 0.444\nsamples = 3\nvalue = [1, 2]\nclass = Survived", fillcolor="#9ccef2"] ;
276 -> 278 ;
279 [label="gini = 0.5\nsamples = 2\nvalue = [1, 1]\nclass = Unsurvived", fillcolor="#ffffff"] ;
278 -> 279 ;
280 [label="gini = 0.0\nsamples = 1\nvalue = [0, 1]\nclass = Survived", fillcolor="#399de5"] ;
278 -> 280 ;
281 [label="Age <= 44.5\ngini = 0.172\nsamples = 21\nvalue = [19, 2]\nclass = Unsurvived", fillcolor="#e88e4e"] ;
275 -> 281 ;
282 [label="gini = 0.0\nsamples = 13\nvalue = [13, 0]\nclass = Unsurvived", fillcolor="#e58139"] ;
281 -> 282 ;
283 [label="Age <= 46.0\ngini = 0.375\nsamples = 8\nvalue = [6, 2]\nclass = Unsurvived", fillcolor="#eeab7b"] ;
281 -> 283 ;
284 [label="gini = 0.0\nsamples = 1\nvalue = [0, 1]\nclass = Survived", fillcolor="#399de5"] ;
283 -> 284 ;
285 [label="Pclass <= 2.5\ngini = 0.245\nsamples = 7\nvalue = [6, 1]\nclass = Unsurvived", fillcolor="#e9965a"] ;
283 -> 285 ;
286 [label="Age <= 64.0\ngini = 0.444\nsamples = 3\nvalue = [2, 1]\nclass = Unsurvived", fillcolor="#f2c09c"] ;
285 -> 286 ;
287 [label="gini = 0.0\nsamples = 1\nvalue = [0, 1]\nclass = Survived", fillcolor="#399de5"] ;
286 -> 287 ;
288 [label="gini = 0.0\nsamples = 2\nvalue = [2, 0]\nclass = Unsurvived", fillcolor="#e58139"] ;
286 -> 288 ;
289 [label="gini = 0.0\nsamples = 4\nvalue = [4, 0]\nclass = Unsurvived", fillcolor="#e58139"] ;
285 -> 289 ;
290 [label="SibSp <= 0.5\ngini = 0.121\nsamples = 108\nvalue = [101, 7]\nclass = Unsurvived", fillcolor="#e78a47"] ;
190 -> 290 ;
291 [label="Age <= 10.0\ngini = 0.191\nsamples = 56\nvalue = [50, 6]\nclass = Unsurvived", fillcolor="#e89051"] ;
290 -> 291 ;
292 [label="gini = 0.0\nsamples = 1\nvalue = [0, 1]\nclass = Survived", fillcolor="#399de5"] ;
291 -> 292 ;
293 [label="Age <= 25.5\ngini = 0.165\nsamples = 55\nvalue = [50, 5]\nclass = Unsurvived", fillcolor="#e88e4d"] ;
291 -> 293 ;
294 [label="gini = 0.0\nsamples = 17\nvalue = [17, 0]\nclass = Unsurvived", fillcolor="#e58139"] ;
293 -> 294 ;
295 [label="Fare <= 44.748\ngini = 0.229\nsamples = 38\nvalue = [33, 5]\nclass = Unsurvived", fillcolor="#e99457"] ;
293 -> 295 ;
296 [label="Age <= 26.5\ngini = 0.193\nsamples = 37\nvalue = [33, 4]\nclass = Unsurvived", fillcolor="#e89051"] ;
295 -> 296 ;
297 [label="gini = 0.0\nsamples = 1\nvalue = [0, 1]\nclass = Survived", fillcolor="#399de5"] ;
296 -> 297 ;
298 [label="Fare <= 13.25\ngini = 0.153\nsamples = 36\nvalue = [33, 3]\nclass = Unsurvived", fillcolor="#e78c4b"] ;
296 -> 298 ;
299 [label="Age <= 30.5\ngini = 0.255\nsamples = 20\nvalue = [17, 3]\nclass = Unsurvived", fillcolor="#ea975c"] ;
298 -> 299 ;
300 [label="gini = 0.0\nsamples = 6\nvalue = [6, 0]\nclass = Unsurvived", fillcolor="#e58139"] ;
299 -> 300 ;
301 [label="Age <= 32.5\ngini = 0.337\nsamples = 14\nvalue = [11, 3]\nclass = Unsurvived", fillcolor="#eca36f"] ;
299 -> 301 ;
302 [label="gini = 0.0\nsamples = 1\nvalue = [0, 1]\nclass = Survived", fillcolor="#399de5"] ;
301 -> 302 ;
303 [label="Age <= 45.0\ngini = 0.26\nsamples = 13\nvalue = [11, 2]\nclass = Unsurvived", fillcolor="#ea985d"] ;
301 -> 303 ;
304 [label="Age <= 40.5\ngini = 0.375\nsamples = 8\nvalue = [6, 2]\nclass = Unsurvived", fillcolor="#eeab7b"] ;
303 -> 304 ;
305 [label="Age <= 35.0\ngini = 0.278\nsamples = 6\nvalue = [5, 1]\nclass = Unsurvived", fillcolor="#ea9a61"] ;
304 -> 305 ;
306 [label="gini = 0.444\nsamples = 3\nvalue = [2, 1]\nclass = Unsurvived", fillcolor="#f2c09c"] ;
305 -> 306 ;
307 [label="gini = 0.0\nsamples = 3\nvalue = [3, 0]\nclass = Unsurvived", fillcolor="#e58139"] ;
305 -> 307 ;
308 [label="gini = 0.5\nsamples = 2\nvalue = [1, 1]\nclass = Unsurvived", fillcolor="#ffffff"] ;
304 -> 308 ;
309 [label="gini = 0.0\nsamples = 5\nvalue = [5, 0]\nclass = Unsurvived", fillcolor="#e58139"] ;
303 -> 309 ;
310 [label="gini = 0.0\nsamples = 16\nvalue = [16, 0]\nclass = Unsurvived", fillcolor="#e58139"] ;
298 -> 310 ;
311 [label="gini = 0.0\nsamples = 1\nvalue = [0, 1]\nclass = Survived", fillcolor="#399de5"] ;
295 -> 311 ;
312 [label="Age <= 31.5\ngini = 0.038\nsamples = 52\nvalue = [51, 1]\nclass = Unsurvived", fillcolor="#e6833d"] ;
290 -> 312 ;
313 [label="gini = 0.0\nsamples = 31\nvalue = [31, 0]\nclass = Unsurvived", fillcolor="#e58139"] ;
312 -> 313 ;
314 [label="Age <= 32.25\ngini = 0.091\nsamples = 21\nvalue = [20, 1]\nclass = Unsurvived", fillcolor="#e68743"] ;
312 -> 314 ;
315 [label="Pclass <= 2.5\ngini = 0.444\nsamples = 3\nvalue = [2, 1]\nclass = Unsurvived", fillcolor="#f2c09c"] ;
314 -> 315 ;
316 [label="SibSp <= 1.5\ngini = 0.5\nsamples = 2\nvalue = [1, 1]\nclass = Unsurvived", fillcolor="#ffffff"] ;
315 -> 316 ;
317 [label="gini = 0.0\nsamples = 1\nvalue = [0, 1]\nclass = Survived", fillcolor="#399de5"] ;
316 -> 317 ;
318 [label="gini = 0.0\nsamples = 1\nvalue = [1, 0]\nclass = Unsurvived", fillcolor="#e58139"] ;
316 -> 318 ;
319 [label="gini = 0.0\nsamples = 1\nvalue = [1, 0]\nclass = Unsurvived", fillcolor="#e58139"] ;
315 -> 319 ;
320 [label="gini = 0.0\nsamples = 18\nvalue = [18, 0]\nclass = Unsurvived", fillcolor="#e58139"] ;
314 -> 320 ;
}